digraph Tree {
node [shape=box, style="filled, rounded", color="black", fontname=helvetica] ;
edge [fontname=helvetica] ;
0 [label="Popularity <= 55.5\ngini = 0.9\nsamples = 691\nvalue = [106, 284, 65, 40, 31, 40, 49, 52, 40, 34, 22, 61, 64, 20\n24, 36, 29, 42, 41, 18]\nclass = album rock", fillcolor="#e5b4392e"] ;
1 [label="Valence <= 83.5\ngini = 0.89\nsamples = 240\nvalue = [20, 85, 10, 11, 0, 3, 0, 49, 35, 12, 20, 10, 51, 1, 12\n9, 1, 20, 26, 6]\nclass = album rock", fillcolor="#e5b4391a"] ;
0 -> 1 [labeldistance=2.5, labelangle=45, headlabel="True"] ;
2 [label="Beats Per Minute (BPM) <= 97.5\ngini = 0.88\nsamples = 207\nvalue = [13, 84, 10, 8, 0, 3, 0, 38, 27, 12, 15, 8, 44, 0, 12, 2\n1, 18, 26, 3]\nclass = album rock", fillcolor="#e5b43924"] ;
1 -> 2 ;
3 [label="gini = 0.86\nsamples = 50\nvalue = [3, 10, 0, 0, 0, 0, 0, 19, 8, 5, 4, 0, 14, 0, 3, 1, 0\n4, 13, 0]\nclass = dutch indie", fillcolor="#39e59212"] ;
2 -> 3 ;
4 [label="gini = 0.86\nsamples = 157\nvalue = [10, 74, 10, 8, 0, 3, 0, 19, 19, 7, 11, 8, 30, 0, 9, 1\n1, 14, 13, 3]\nclass = album rock", fillcolor="#e5b43935"] ;
2 -> 4 ;
5 [label="Length (Duration) <= 329.0\ngini = 0.88\nsamples = 33\nvalue = [7, 1, 0, 3, 0, 0, 0, 11, 8, 0, 5, 2, 7, 1, 0, 7, 0, 2\n0, 3]\nclass = dutch indie", fillcolor="#39e59210"] ;
1 -> 5 ;
6 [label="gini = 0.85\nsamples = 27\nvalue = [5, 1, 0, 3, 0, 0, 0, 11, 8, 0, 5, 0, 7, 1, 0, 0, 0, 2\n0, 3]\nclass = dutch indie", fillcolor="#39e59214"] ;
5 -> 6 ;
7 [label="gini = 0.53\nsamples = 6\nvalue = [2, 0, 0, 0, 0, 0, 0, 0, 0, 0, 0, 2, 0, 0, 0, 7, 0, 0\n0, 0]\nclass = art rock", fillcolor="#d739e58e"] ;
5 -> 7 ;
8 [label="Energy <= 59.5\ngini = 0.88\nsamples = 451\nvalue = [86, 199, 55, 29, 31, 37, 49, 3, 5, 22, 2, 51, 13, 19, 12\n27, 28, 22, 15, 12]\nclass = album rock", fillcolor="#e5b4392e"] ;
0 -> 8 [labeldistance=2.5, labelangle=-45, headlabel="False"] ;
9 [label="Beats Per Minute (BPM) <= 194.5\ngini = 0.85\nsamples = 218\nvalue = [76, 95, 10, 17, 12, 3, 20, 2, 2, 13, 1, 14, 5, 14, 1, 12\n15, 6, 10, 6]\nclass = album rock", fillcolor="#e5b43913"] ;
8 -> 9 ;
10 [label="gini = 0.85\nsamples = 217\nvalue = [76, 95, 10, 17, 12, 3, 16, 2, 2, 13, 1, 14, 5, 14, 1, 12\n15, 6, 10, 6]\nclass = album rock", fillcolor="#e5b43913"] ;
9 -> 10 ;
11 [label="gini = 0.0\nsamples = 1\nvalue = [0, 0, 0, 0, 0, 0, 4, 0, 0, 0, 0, 0, 0, 0, 0, 0, 0, 0\n0, 0]\nclass = alternative rock", fillcolor="#39e55eff"] ;
9 -> 11 ;
12 [label="Valence <= 59.5\ngini = 0.88\nsamples = 233\nvalue = [10, 104, 45, 12, 19, 34, 29, 1, 3, 9, 1, 37, 8, 5, 11\n15, 13, 16, 5, 6]\nclass = album rock", fillcolor="#e5b4392d"] ;
8 -> 12 ;
13 [label="gini = 0.85\nsamples = 107\nvalue = [0, 46, 37, 1, 0, 22, 15, 0, 3, 9, 0, 10, 7, 5, 8, 4, 2\n2, 2, 2]\nclass = album rock", fillcolor="#e5b43911"] ;
12 -> 13 ;
14 [label="gini = 0.87\nsamples = 126\nvalue = [10, 58, 8, 11, 19, 12, 14, 1, 0, 0, 1, 27, 1, 0, 3, 11\n11, 14, 3, 4]\nclass = album rock", fillcolor="#e5b4392c"] ;
12 -> 14 ;
}